2.285794019699096680e-01
5.608544945716857910e-01
1.830241203308105469e+00
-7.361311912536621094e-01
7.610338926315307617e-02
-1.809647202491760254e+00
6.653102040290832520e-01
6.373452544212341309e-01
1.199791193008422852e+00
-9.320490360260009766e-01
-6.772100925445556641e-01
-1.573232114315032959e-01
-1.165379762649536133e+00
-5.631556510925292969e-01
-1.893168330192565918e+00
9.911775588989257812e-01
4.323123395442962646e-01
-8.457023501396179199e-01
-4.653034806251525879e-01
2.580592393875122070e+00
-9.831786155700683594e-01
-1.483108758926391602e+00
4.705353677272796631e-01
9.872627854347229004e-01
4.749398827552795410e-01
-1.280512958765029907e-01
-2.312255948781967163e-01
1.978348568081855774e-02
-4.523772001266479492e-01
3.045881688594818115e-01
-1.087085962295532227e+00
-7.932706475257873535e-01
-2.707412242889404297e+00
4.683452248573303223e-01
-2.139177620410919189e-01
-1.784309744834899902e+00
2.106613397598266602e+00
-1.257837414741516113e+00
7.633118629455566406e-01
-2.246549129486083984e+00
-3.128203377127647400e-02
7.920007705688476562e-01
-7.951923459768295288e-02
3.394385576248168945e-01
3.091548085212707520e-01
6.855461597442626953e-01
9.049741029739379883e-01
2.161270380020141602e+00
-8.764775842428207397e-02
2.215002298355102539e+00
2.229724079370498657e-01
1.715395569801330566e+00
-1.776880502700805664e+00
-5.347827076911926270e-01
1.660513728857040405e-01
-8.046840429306030273e-01
-1.441746354103088379e+00
-2.809615135192871094e-01
1.877554178237915039e+00
-1.467597484588623047e+00
5.537360534071922302e-02
2.342377156019210815e-01
7.281879186630249023e-01
7.809985280036926270e-01
-5.123180747032165527e-01
2.155255079269409180e-01
-1.478887647390365601e-01
7.939014583826065063e-02
-8.250471949577331543e-01
-1.219282865524291992e+00
-1.329305887222290039e+00
-5.012929439544677734e-02
-6.777746677398681641e-01
-1.597454547882080078e-01
-2.611430287361145020e-01
-3.428030386567115784e-02
6.397268176078796387e-01
-1.876639008522033691e+00
1.258781671524047852e+00
-1.309162229299545288e-01
-2.541349828243255615e-01
-1.848592400550842285e+00
4.448080956935882568e-01
-1.258022904396057129e+00
-5.168198347091674805e-01
9.614363908767700195e-01
7.797579467296600342e-02
-9.688813090324401855e-01
-1.088303804397583008e+00
5.863899588584899902e-01
2.553004324436187744e-01
5.966439843177795410e-01
-1.936625242233276367e+00
-3.218753337860107422e-01
-3.997000306844711304e-02
-4.981348514556884766e-01
-7.310280203819274902e-01
-2.020449399948120117e+00
5.874805450439453125e-01
-3.850143253803253174e-01
1.334296584129333496e+00
1.319507598876953125e+00
1.754779219627380371e+00
-2.686953246593475342e-01
3.263680040836334229e-01
-6.925469636917114258e-01
8.154512941837310791e-02
-1.293745398521423340e+00
-1.990620136260986328e+00
2.139158397912979126e-01
-2.036184072494506836e+00
-9.915518015623092651e-02
4.999692738056182861e-01
6.677030771970748901e-02
-1.038636803627014160e+00
-1.869476914405822754e+00
-7.836524248123168945e-01
5.446298718452453613e-01
1.331917881965637207e+00
7.667571306228637695e-01
1.010679721832275391e+00
2.118648529052734375e+00
-3.869031667709350586e-01
2.736109972000122070e+00
-1.366850852966308594e+00
-1.273955106735229492e-01
-7.363157272338867188e-01
-3.333463370800018311e-01
-9.708511829376220703e-01
-8.289276063442230225e-02
-7.269787043333053589e-02
-6.456361711025238037e-02
1.263782978057861328e-01
-3.401466012001037598e-01
-1.112312912940979004e+00
1.310412883758544922e-01
-4.659672081470489502e-02
-1.258231163024902344e+00
-1.593593358993530273e-01
-9.742484688758850098e-01
-2.855577468872070312e-01
7.772009372711181641e-01
1.349485039710998535e+00
-4.093471765518188477e-01
-5.835002064704895020e-01
-7.066407203674316406e-01
-2.176602929830551147e-01
-7.066692709922790527e-01
-1.320486217737197876e-01
-1.224071860313415527e+00
-7.258533239364624023e-01
-2.065529584884643555e+00
-6.278876662254333496e-01
-1.653548955917358398e+00
8.767677843570709229e-02
6.581992506980895996e-01
-2.094742059707641602e+00
-1.139497518539428711e+00
-1.440736889839172363e+00
-1.897153854370117188e+00
-8.728366494178771973e-01
2.853441834449768066e-01
-4.120696485042572021e-01
-1.297675967216491699e+00
6.670188307762145996e-01
9.202805161476135254e-02
2.687345147132873535e-01
-9.941309690475463867e-01
-1.723387539386749268e-01
2.032276391983032227e+00
-4.361975789070129395e-01
5.644953623414039612e-02
-1.202648997306823730e+00
1.147013381123542786e-01
-7.044017314910888672e-01
-1.820123910903930664e+00
3.596767187118530273e-01
-3.828397765755653381e-02
-1.072236537933349609e+00
-8.390803337097167969e-01
-7.721759676933288574e-01
-2.319689989089965820e-01
1.772935688495635986e-01
-5.538172721862792969e-01
3.082846701145172119e-01
-1.070162773132324219e+00
1.378329992294311523e+00
-1.787474751472473145e+00
-1.368978619575500488e+00
2.119097560644149780e-01
-1.574697136878967285e+00
1.656845927238464355e+00
7.385202050209045410e-01
1.414638459682464600e-01
3.641664981842041016e-01
2.521201848983764648e+00
-9.342507123947143555e-01
-4.395585060119628906e-01
4.323400557041168213e-01
2.452332079410552979e-01
6.011066958308219910e-02
-2.764480710029602051e-01
7.781573534011840820e-01
-5.125896930694580078e-01
-1.191349983215332031e+00
-1.719813048839569092e-02
1.563074290752410889e-01
-6.450488567352294922e-01
-8.571903705596923828e-01
-2.878767848014831543e-01
-2.861129045486450195e-01
7.709346413612365723e-01
1.177654504776000977e+00
-1.347696781158447266e+00
-1.201123356819152832e+00
-1.299764215946197510e-01
-9.186682105064392090e-01
9.665461629629135132e-02
-9.642018675804138184e-01
-1.135834529995918274e-01
8.486148118972778320e-01
-6.797136664390563965e-01
-8.783630132675170898e-01
8.758423924446105957e-01
1.288609743118286133e+00
1.511044740676879883e+00
-5.604357924312353134e-03
-1.081409692764282227e+00
-2.243102073669433594e+00
1.473278403282165527e+00
-1.381031870841979980e+00
-7.274168729782104492e-01
-3.204143345355987549e-01
9.962956905364990234e-01
-3.124036192893981934e-01
-7.158837914466857910e-01
4.603173434734344482e-01
1.375547498464584351e-01
-3.092772364616394043e-01
-1.104710936546325684e+00
-3.500583767890930176e-02
-5.289028286933898926e-01
-6.776421070098876953e-01
-6.322975754737854004e-01
-1.340485453605651855e+00
1.001561999320983887e+00
-9.895710349082946777e-01
8.739342093467712402e-01
9.947064518928527832e-01
-3.686057627201080322e-01
1.881934762001037598e+00
-2.009717702865600586e+00
-6.593086123466491699e-01
-1.828711867332458496e+00
1.491934895515441895e+00
3.590854704380035400e-01
