-8.142793774604797363e-01
-4.672362804412841797e-01
-9.898236393928527832e-01
-1.801510810852050781e+00
5.866438150405883789e-01
-5.813772082328796387e-01
7.396318316459655762e-01
-1.815671443939208984e+00
-5.472636818885803223e-01
9.547148346900939941e-01
-1.465053677558898926e+00
-2.944051660597324371e-02
2.442489862442016602e-01
9.311888813972473145e-01
-7.011248469352722168e-01
8.281301856040954590e-01
-3.747890889644622803e-01
5.708008408546447754e-01
1.929537892341613770e+00
-2.307547807693481445e+00
1.359487533569335938e+00
-7.692741751670837402e-01
3.311541676521301270e-01
-5.277208089828491211e-01
1.121873617172241211e+00
-4.497083276510238647e-02
2.866665601730346680e+00
-2.959417402744293213e-01
-2.788299083709716797e+00
2.011281967163085938e+00
-7.612991333007812500e-01
3.652818202972412109e-01
1.385041594505310059e+00
9.699046611785888672e-02
4.988040626049041748e-01
-1.350689679384231567e-01
4.855387508869171143e-01
-5.521737411618232727e-02
-1.104754135012626648e-01
-3.360795974731445312e-01
-2.327209264039993286e-01
-2.156297713518142700e-01
2.932207286357879639e-01
2.390951663255691528e-01
-1.212721586227416992e+00
4.940076172351837158e-01
2.238780021667480469e+00
-1.668402105569839478e-01
-8.666838407516479492e-01
1.240400314331054688e+00
2.502722442150115967e-01
1.050172328948974609e+00
-1.076796293258666992e+00
1.437057137489318848e+00
-3.620403707027435303e-01
-4.685261845588684082e-01
1.428144335746765137e+00
2.601375281810760498e-01
4.205168783664703369e-02
-4.536100327968597412e-01
8.561513423919677734e-01
-1.725986719131469727e+00
-8.631955385208129883e-01
1.006985068321228027e+00
-8.947176933288574219e-01
3.285558521747589111e-01
-2.526640295982360840e-01
1.894581913948059082e-01
8.668683171272277832e-01
1.999073177576065063e-01
9.769368767738342285e-01
-1.658988237380981445e+00
1.172996997833251953e+00
-1.083380222320556641e+00
1.276457589119672775e-02
-8.233673572540283203e-01
-1.856399476528167725e-01
-1.365052342414855957e+00
3.120298385620117188e-01
-3.004715144634246826e-01
-1.186117172241210938e+00
-5.604806542396545410e-01
-1.392134904861450195e+00
-9.702343940734863281e-01
1.193425416946411133e+00
7.972730323672294617e-03
-1.273793578147888184e-01
-2.650344669818878174e-01
1.647790819406509399e-01
2.420582771301269531e+00
1.251199126243591309e+00
1.303830862045288086e+00
-9.040647149085998535e-01
7.743190526962280273e-01
-1.285914063453674316e+00
-3.838706910610198975e-01
-1.661724448204040527e+00
-4.181493818759918213e-01
-2.362494707107543945e+00
-2.633054256439208984e+00
1.412187814712524414e+00
5.617650747299194336e-01
-1.769635677337646484e+00
-1.668065190315246582e-01
-5.922096371650695801e-01
-1.361427307128906250e+00
6.273028850555419922e-01
5.738404989242553711e-01
-1.423173785209655762e+00
2.279585361480712891e+00
6.707290410995483398e-01
-2.076140403747558594e+00
-5.350329279899597168e-01
7.350782155990600586e-01
-6.597509980201721191e-01
4.299347698688507080e-01
7.969256639480590820e-01
-5.347262024879455566e-01
2.636067867279052734e-01
-1.332610130310058594e+00
-5.737685561180114746e-01
1.690948903560638428e-01
-3.954305350780487061e-01
6.237072944641113281e-01
8.611152172088623047e-01
-6.814789175987243652e-01
5.433697700500488281e-01
-4.574105441570281982e-01
1.513870656490325928e-01
-6.564739942550659180e-01
5.403672456741333008e-01
-2.437471412122249603e-02
-8.907750248908996582e-02
-5.353507399559020996e-01
-6.740205883979797363e-01
1.627049803733825684e+00
-1.235796093940734863e+00
-6.118172407150268555e-01
2.396797239780426025e-01
-1.965924948453903198e-01
-9.015445248223841190e-04
1.656114697456359863e+00
1.137531876564025879e+00
1.131974935531616211e+00
5.922482535243034363e-02
1.287513017654418945e+00
-9.713237285614013672e-01
-1.473645687103271484e+00
-9.921560883522033691e-01
4.936053454875946045e-01
-4.456361010670661926e-02
2.724171280860900879e-01
9.812464714050292969e-01
-1.796812534332275391e+00
1.328937649726867676e+00
-5.548528432846069336e-01
7.766609191894531250e-01
7.264472842216491699e-01
-1.188234314322471619e-01
-1.063208460807800293e+00
7.798556089401245117e-01
-3.045719265937805176e-01
5.199860334396362305e-01
-1.838785707950592041e-01
9.440675973892211914e-01
1.644335031509399414e+00
3.913843631744384766e-01
4.472778737545013428e-01
1.150506019592285156e+00
-4.361270964145660400e-01
6.974409222602844238e-01
-1.379204869270324707e+00
-1.813045024871826172e+00
9.054556488990783691e-01
3.532041311264038086e-01
-6.406680345535278320e-01
3.869751393795013428e-01
-1.254788160324096680e+00
1.469002068042755127e-01
1.081372857093811035e+00
6.331864595413208008e-01
1.550541758537292480e+00
-2.133533716201782227e+00
-1.351927518844604492e-01
6.410658955574035645e-01
-6.288523077964782715e-01
1.129164218902587891e+00
-8.628793954849243164e-01
-1.041527185589075089e-02
-1.151072621345520020e+00
1.082939982414245605e+00
8.893691897392272949e-01
-8.306798934936523438e-01
-3.748190701007843018e-01
4.184085726737976074e-01
1.112067222595214844e+00
-8.138958811759948730e-01
6.610710024833679199e-01
-1.103729158639907837e-01
-3.384755551815032959e-01
-1.945070862770080566e+00
-1.461201906204223633e+00
7.912277579307556152e-01
5.875635147094726562e-01
1.346516609191894531e+00
2.085414886474609375e+00
2.448911428451538086e+00
8.907454609870910645e-01
4.316819310188293457e-01
-1.193582296371459961e+00
8.301871418952941895e-01
-9.527232050895690918e-01
3.734122589230537415e-02
-9.668580293655395508e-01
-9.120481610298156738e-01
-6.348813176155090332e-01
-6.329568624496459961e-01
1.202526316046714783e-01
2.112852811813354492e+00
-6.688351035118103027e-01
-7.412127852439880371e-01
-3.983721733093261719e-01
-1.565076351165771484e+00
-1.907027065753936768e-01
-4.548802971839904785e-02
-5.997107177972793579e-02
-5.250874757766723633e-01
2.011094331741333008e+00
-3.871704041957855225e-01
-3.095194995403289795e-01
1.313537597656250000e+00
-5.413138270378112793e-01
-1.290485382080078125e+00
6.630638241767883301e-02
1.297628600150346756e-02
4.229421019554138184e-01
-4.466597437858581543e-01
-1.465493917465209961e+00
4.884589612483978271e-01
-1.019918203353881836e+00
-1.876219511032104492e+00
3.193018436431884766e-01
5.127014219760894775e-02
-2.825873792171478271e-01
-5.388213992118835449e-01
-1.816516757011413574e+00
-1.061068177223205566e+00
-5.775111913681030273e-01
-5.626403093338012695e-01
-9.669312834739685059e-01
7.563284635543823242e-01
-2.367095649242401123e-01
-2.094025015830993652e-01
-5.702911615371704102e-01
-8.043034672737121582e-01
8.159728646278381348e-01
